4 2 16 16 1
-1.05071 -1.27543 1.78228 -2.03855 -2.10056 -2.15968 -0.349315 0.836074 -0.654078 1.05585 -0.963574 -1.25532 1.48623 -1.37011 -1.39704 -0.905364 -1.04051 -0.973717 -0.670643 -0.687171 -0.870698 -0.122454 -0.135985 -0.782321 -1.47631 1.69179 1.558 0.122058 -0.6597 0.963552 0.846971 1.03206 -1.64527 -1.25129 1.575 -1.28766 -0.135632 -1.56747 -0.0952261 -1.0662 0.756959 0.397207 -1.58579 1.68985 1.8982 0.337573 -1.51713 0.320824 -1.00843 0.344392 -0.344252 -0.402467 -0.844285 0.989107 0.136247 -0.861406 0.453226 -0.15921 0.000372737 -0.898563 0.0771834 0.968565 0.399729 -0.144642 -0.065297 0.238011 0.156431 1.55866 0.0913567 -0.425726 -1.10027 0.0266597 1.06787 -0.177901 0.0943575 0.687395 -0.518997 -0.251692 -0.893676 -0.584871 1.42573 0.045841 -0.316882 2.1211 -0.987639 -1.31489 -0.729124 -0.499518 -0.0974396 -0.130512 -0.812522 -1.28552 0.56326 -1.91991 -0.225602 1.28082 -0.284565 -0.589388 1.12383 -1.3032 -0.343589 1.96011 -0.283869 0.385389 -0.550585 0.860966 0.258639 -0.153061 -1.0933 -0.591132 0.190751 -1.11279 1.11963 0.330946 -1.35886 -0.108142 0.605445 -0.919586 0.061023 -0.134758 0.748522 1.14557 0.229029 -0.609472 0.864499 -1.55735 0.619642 -0.0769707 0.351366 0.860037 -0.688717 -1.42747 0.705265 0.439935 0.717212 1.01751 -0.131114 -0.397492 -0.485008 0.153933 0.597658 0.395831 0.287899 0.503383 0.0427501 0.260085 -0.761687 -0.284799 0.520501 0.264833 0.55769 -0.464153 0.512025 -0.529043 -0.275365 -0.79845 0.0919051 -0.039355 0.0706817 1.33175 -0.402347 0.75466 -0.934623 -0.775782 0.312896 -0.482609 1.11234 -0.867555 -0.516268 -0.732584 0.560005 -0.358947 -0.747572 -0.430668 0.985238 0.265878 0.569728 -1.18708 1.24624 1.06366 0.15806 0.334405 -1.25115 -0.927594 0.698056 0.499666 -1.2934 -0.201068 1.03666 1.0843 -0.587553 -0.855949 0.396125 -0.542313 -0.673798 -0.54343 0.623681 -0.799285 -0.25747 -1.47202 -0.170435 -0.474485 -0.40749 0.861632 -0.0610619 -0.399226 -1.10009 0.240152 0.157814 1.00153 0.0133211 -0.30787 0.399389 -0.779834 0.170238 0.391853 1.22198 0.839301 -0.872591 0.743308 -0.122693 -0.0391509 1.09559 0.167232 -1.08285 -0.72023 0.789465 0.179213 -0.252858 -0.226 0.937489 0.596788 0.116794 -0.885365 -0.360354 -0.849547 0.0631903 -0.35677 0.149589 1.06786 -0.102987 0.469253 -0.568583 -0.88043 -0.975992 0.217511 0.384816 1.00421 -0.192729 0.437764 0.259564 -0.788073 -0.7364 0.228537 0.420426 -0.656374 0.533522 -0.199044 0.844102 -0.521372 0.766111 0.780391 -0.727566 -0.066534 0.714811 -0.0651464 0.188971 0.139648 0.718676 -0.858791 -0.166439 -0.399395 0.665204 0.271189 -0.393274 0.824119 -0.446684 0.986301 0.67788 0.397448 0.442972 0.0316244 0.664451 0.775457 -0.541138 -0.0938888 -0.918525 -1.06542 1.44368 -1.05456 -0.469232 0.502692 0.659359 0.0285446 -0.251091 0.658209 0.922829 0.939568 -0.972173 0.803436 -0.939588 0.420359 -0.635579 0.940426 -0.346569 -0.651801 0.753227 0.253045 0.31872 0.0510254 -0.640335 -0.464561 -0.941224 -0.869268 -0.627064 0.195353 -0.161901 -0.512719 -0.260748 -0.110623 -0.856271 0.777499 -1.74788 3.24927 -2.41195 2.21394 -0.555304 -1.44154 1.55239 2.59372 -1.89571 1.18045 0.836618 -0.561575 -0.147503 -1.83181 1.38425 